<?xml version="1.0"?>
<opencv_storage>
<cascade>
  <stageType>BOOST</stageType>
  <featureType>HAAR</featureType>
  <height>24</height>
  <width>24</width>
  <stageParams>
    <boostType>GAB</boostType>
    <minHitRate>9.9500000476837158e-01</minHitRate>
    <maxFalseAlarm>5.0000000000000000e-01</maxFalseAlarm>
    <weightTrimRate>9.4999998807907104e-01</weightTrimRate>
    <maxDepth>1</maxDepth>
    <maxWeakCount>100</maxWeakCount></stageParams>
  <featureParams>
    <maxCatCount>0</maxCatCount>
    <featSize>1</featSize>
    <mode>BASIC</mode></featureParams>
  <stageNum>5</stageNum>
  <stages>
    <!-- stage 0 -->
    <_>
      <maxWeakCount>2</maxWeakCount>
      <stageThreshold>-2.8840395808219910e-01</stageThreshold>
      <weakClassifiers>
        <_>
          <internalNodes>
            0 -1 1 5.5519524961709976e-02</internalNodes>
          <leafValues>
            -9.4450372457504272e-01 6.1555075645446777e-01</leafValues></_>
        <_>
          <internalNodes>
            0 -1 2 -5.1817081868648529e-02</internalNodes>
          <leafValues>
            6.5609979629516602e-01 -8.8290220499038696e-01</leafValues></_></weakClassifiers></_>
    <!-- stage 1 -->
    <_>
      <maxWeakCount>3</maxWeakCount>
      <stageThreshold>-1.0510364770889282e+00</stageThreshold>
      <weakClassifiers>
        <_>
          <internalNodes>
            0 -1 9 -9.2227965593338013e-02</internalNodes>
          <leafValues>
            6.5437787771224976e-01 -9.1511386632919312e-01</leafValues></_>
        <_>
          <internalNodes>
            0 -1 5 -1.0674684308469296e-03</internalNodes>
          <leafValues>
            6.7936104536056519e-01 -8.2962244749069214e-01</leafValues></_>
        <_>
          <internalNodes>
            0 -1 3 6.0847297310829163e-02</internalNodes>
          <leafValues>
            -7.9596084356307983e-01 6.9369983673095703e-01</leafValues></_></weakClassifiers></_>
    <!-- stage 2 -->
    <_>
      <maxWeakCount>4</maxWeakCount>
      <stageThreshold>-1.6107144355773926e+00</stageThreshold>
      <weakClassifiers>
        <_>
          <internalNodes>
            0 -1 8 -6.0449484735727310e-03</internalNodes>
          <leafValues>
            1. -7.5746923685073853e-01</leafValues></_>
        <_>
          <internalNodes>
            0 -1 11 -6.8896934390068054e-03</internalNodes>
          <leafValues>
            7.9544085264205933e-01 -7.0843905210494995e-01</leafValues></_>
        <_>
          <internalNodes>
            0 -1 7 -1.1035731062293053e-02</internalNodes>
          <leafValues>
            6.7753940820693970e-01 -8.7804436683654785e-01</leafValues></_>
        <_>
          <internalNodes>
            0 -1 4 -1.8906924873590469e-02</internalNodes>
          <leafValues>
            7.3323822021484375e-01 -8.1132090091705322e-01</leafValues></_></weakClassifiers></_>
    <!-- stage 3 -->
    <_>
      <maxWeakCount>3</maxWeakCount>
      <stageThreshold>-8.7468034029006958e-01</stageThreshold>
      <weakClassifiers>
        <_>
          <internalNodes>
            0 -1 12 -1.1172748636454344e-03</internalNodes>
          <leafValues>
            1. -8.7969923019409180e-01</leafValues></_>
        <_>
          <internalNodes>
            0 -1 6 -8.3849660586565733e-04</internalNodes>
          <leafValues>
            1. -8.2313609123229980e-01</leafValues></_>
        <_>
          <internalNodes>
            0 -1 10 -5.6755738332867622e-03</internalNodes>
          <leafValues>
            8.2815504074096680e-01 -8.0314916372299194e-01</leafValues></_></weakClassifiers></_>
    <!-- stage 4 -->
    <_>
      <maxWeakCount>1</maxWeakCount>
      <stageThreshold>1.</stageThreshold>
      <weakClassifiers>
        <_>
          <internalNodes>
            0 -1 0 1.6205471474677324e-03</internalNodes>
          <leafValues>
            1. -1.</leafValues></_></weakClassifiers></_></stages>
  <features>
    <_>
      <rects>
        <_>
          0 0 2 1 -1.</_>
        <_>
          1 0 1 1 2.</_></rects>
      <tilted>0</tilted></_>
    <_>
      <rects>
        <_>
          0 5 6 16 -1.</_>
        <_>
          3 5 3 16 2.</_></rects>
      <tilted>0</tilted></_>
    <_>
      <rects>
        <_>
          0 13 24 6 -1.</_>
        <_>
          0 16 24 3 2.</_></rects>
      <tilted>0</tilted></_>
    <_>
      <rects>
        <_>
          1 0 12 10 -1.</_>
        <_>
          1 5 12 5 2.</_></rects>
      <tilted>0</tilted></_>
    <_>
      <rects>
        <_>
          1 13 10 6 -1.</_>
        <_>
          1 16 10 3 2.</_></rects>
      <tilted>0</tilted></_>
    <_>
      <rects>
        <_>
          9 22 3 2 -1.</_>
        <_>
          9 23 3 1 2.</_></rects>
      <tilted>0</tilted></_>
    <_>
      <rects>
        <_>
          10 22 2 2 -1.</_>
        <_>
          10 23 2 1 2.</_></rects>
      <tilted>0</tilted></_>
    <_>
      <rects>
        <_>
          15 2 8 8 -1.</_>
        <_>
          19 2 4 8 2.</_></rects>
      <tilted>0</tilted></_>
    <_>
      <rects>
        <_>
          16 1 8 4 -1.</_>
        <_>
          16 1 4 2 2.</_>
        <_>
          20 3 4 2 2.</_></rects>
      <tilted>0</tilted></_>
    <_>
      <rects>
        <_>
          16 4 8 17 -1.</_>
        <_>
          20 4 4 17 2.</_></rects>
      <tilted>0</tilted></_>
    <_>
      <rects>
        <_>
          18 0 6 10 -1.</_>
        <_>
          18 0 3 5 2.</_>
        <_>
          21 5 3 5 2.</_></rects>
      <tilted>0</tilted></_>
    <_>
      <rects>
        <_>
          20 15 3 9 -1.</_>
        <_>
          20 18 3 3 3.</_></rects>
      <tilted>0</tilted></_>
    <_>
      <rects>
        <_>
          20 16 2 4 -1.</_>
        <_>
          20 18 2 2 2.</_></rects>
      <tilted>0</tilted></_></features></cascade>
</opencv_storage>
